Language model created by QuickLM on Thu Feb 23 06:37:52 EST 2017
Copyright (c) 1996-2010 Carnegie Mellon University and Alexander I. Rudnicky

The model is in standard ARPA format, designed by Doug Paul while he was at MITRE.

The code that was used to produce this language model is available in Open Source.
Please visit http://www.speech.cs.cmu.edu/tools/ for more information

The (fixed) discount mass is 0.5. The backoffs are computed using the ratio method.
This model based on a corpus of 38 sentences and 28 words

\data\
ngram 1=28
ngram 2=64
ngram 3=58

\1-grams:
-0.8580 </s> -0.3010
-0.8580 <s> -0.2096
-2.4378 ADMIN -0.2362
-2.1367 CHROME -0.2362
-1.2617 CLOSE -0.2489
-2.4378 CONTROL -0.2362
-2.1367 EX -0.2362
-2.4378 FACEBOOK -0.2362
-2.1367 FILE -0.2914
-2.4378 GMAIL -0.2362
-2.1367 MAIL -0.2362
-1.6596 MANAGER -0.2362
-2.4378 NEW -0.2994
-2.1367 OLS -0.2362
-1.9606 OPEN -0.2325
-2.1367 PAD -0.2362
-2.1367 PAINT -0.2362
-2.1367 PDF -0.2362
-2.1367 PLUS -0.2362
-2.1367 PROJECT -0.2362
-2.1367 SERVICE -0.2914
-2.1367 SKYPE -0.2362
-2.4378 TAB -0.2362
-2.1367 TASK -0.2914
-2.4378 TN -0.2362
-2.4378 VM -0.2362
-2.1367 WORD -0.2362
-2.4378 YOUTUBE -0.2362

\2-grams:
-1.8808 <s> ADMIN 0.0000
-1.8808 <s> CHROME 0.0000
-0.7047 <s> CLOSE 0.0000
-1.8808 <s> CONTROL 0.0000
-1.8808 <s> EX 0.0000
-1.8808 <s> FACEBOOK 0.0000
-1.8808 <s> FILE 0.0000
-1.8808 <s> GMAIL 0.0000
-1.8808 <s> MAIL 0.0000
-1.8808 <s> NEW 0.0000
-1.8808 <s> OLS 0.0000
-1.5798 <s> OPEN 0.0000
-1.8808 <s> PAD 0.0000
-1.8808 <s> PDF 0.0000
-1.8808 <s> PLUS 0.0000
-1.8808 <s> PROJECT 0.0000
-1.8808 <s> SERVICE 0.0000
-1.8808 <s> SKYPE 0.0000
-1.8808 <s> TASK 0.0000
-1.8808 <s> TN 0.0000
-1.8808 <s> VM 0.0000
-1.8808 <s> WORD 0.0000
-1.8808 <s> YOUTUBE 0.0000
-0.3010 ADMIN </s> -0.3010
-0.3010 CHROME </s> -0.3010
-1.4771 CLOSE CHROME 0.0000
-1.4771 CLOSE EX 0.0000
-1.4771 CLOSE FILE 0.0000
-1.4771 CLOSE MAIL 0.0000
-1.4771 CLOSE OLS 0.0000
-1.4771 CLOSE OPEN -0.1249
-1.4771 CLOSE PAD 0.0000
-1.4771 CLOSE PAINT 0.0000
-1.4771 CLOSE PDF 0.0000
-1.4771 CLOSE PLUS 0.0000
-1.4771 CLOSE PROJECT 0.0000
-1.4771 CLOSE SERVICE 0.0000
-1.4771 CLOSE SKYPE 0.0000
-1.4771 CLOSE TASK 0.0000
-1.4771 CLOSE WORD 0.0000
-0.3010 CONTROL </s> -0.3010
-0.3010 EX </s> -0.3010
-0.3010 FACEBOOK </s> -0.3010
-0.3010 FILE MANAGER 0.0000
-0.3010 GMAIL </s> -0.3010
-0.3010 MAIL </s> -0.3010
-0.3010 MANAGER </s> -0.3010
-0.3010 NEW TAB 0.0000
-0.3010 OLS </s> -0.3010
-0.4771 OPEN </s> -0.3010
-0.7782 OPEN PAINT 0.0000
-0.3010 PAD </s> -0.3010
-0.3010 PAINT </s> -0.3010
-0.3010 PDF </s> -0.3010
-0.3010 PLUS </s> -0.3010
-0.3010 PROJECT </s> -0.3010
-0.3010 SERVICE MANAGER 0.0000
-0.3010 SKYPE </s> -0.3010
-0.3010 TAB </s> -0.3010
-0.3010 TASK MANAGER 0.0000
-0.3010 TN </s> -0.3010
-0.3010 VM </s> -0.3010
-0.3010 WORD </s> -0.3010
-0.3010 YOUTUBE </s> -0.3010

\3-grams:
-0.3010 <s> ADMIN </s>
-0.3010 <s> CHROME </s>
-1.4771 <s> CLOSE CHROME
-1.4771 <s> CLOSE EX
-1.4771 <s> CLOSE FILE
-1.4771 <s> CLOSE MAIL
-1.4771 <s> CLOSE OLS
-1.4771 <s> CLOSE OPEN
-1.4771 <s> CLOSE PAD
-1.4771 <s> CLOSE PAINT
-1.4771 <s> CLOSE PDF
-1.4771 <s> CLOSE PLUS
-1.4771 <s> CLOSE PROJECT
-1.4771 <s> CLOSE SERVICE
-1.4771 <s> CLOSE SKYPE
-1.4771 <s> CLOSE TASK
-1.4771 <s> CLOSE WORD
-0.3010 <s> CONTROL </s>
-0.3010 <s> EX </s>
-0.3010 <s> FACEBOOK </s>
-0.3010 <s> FILE MANAGER
-0.3010 <s> GMAIL </s>
-0.3010 <s> MAIL </s>
-0.3010 <s> NEW TAB
-0.3010 <s> OLS </s>
-0.6021 <s> OPEN </s>
-0.6021 <s> OPEN PAINT
-0.3010 <s> PAD </s>
-0.3010 <s> PDF </s>
-0.3010 <s> PLUS </s>
-0.3010 <s> PROJECT </s>
-0.3010 <s> SERVICE MANAGER
-0.3010 <s> SKYPE </s>
-0.3010 <s> TASK MANAGER
-0.3010 <s> TN </s>
-0.3010 <s> VM </s>
-0.3010 <s> WORD </s>
-0.3010 <s> YOUTUBE </s>
-0.3010 CLOSE CHROME </s>
-0.3010 CLOSE EX </s>
-0.3010 CLOSE FILE MANAGER
-0.3010 CLOSE MAIL </s>
-0.3010 CLOSE OLS </s>
-0.3010 CLOSE OPEN </s>
-0.3010 CLOSE PAD </s>
-0.3010 CLOSE PAINT </s>
-0.3010 CLOSE PDF </s>
-0.3010 CLOSE PLUS </s>
-0.3010 CLOSE PROJECT </s>
-0.3010 CLOSE SERVICE MANAGER
-0.3010 CLOSE SKYPE </s>
-0.3010 CLOSE TASK MANAGER
-0.3010 CLOSE WORD </s>
-0.3010 FILE MANAGER </s>
-0.3010 NEW TAB </s>
-0.3010 OPEN PAINT </s>
-0.3010 SERVICE MANAGER </s>
-0.3010 TASK MANAGER </s>

\end\
